9 100
influence 0.004003 0.004419 -0.003830 -0.003278 0.001367 0.003021 0.000941 0.000211 -0.003604 0.002218 -0.004356 0.001250 -0.000751 -0.000957 -0.003316 -0.001882 0.002579 0.003025 0.002969 0.001597 0.001545 -0.003803 -0.004096 0.004970 0.003801 0.003090 -0.000604 0.004016 -0.000495 0.000735 -0.000149 -0.002983 0.001312 -0.001337 -0.003825 0.004754 0.004379 -0.001095 -0.000226 0.000509 -0.003638 -0.004007 0.004555 0.000063 -0.002582 -0.003042 -0.003076 0.001697 0.000201 0.001331 -0.004214 -0.003808 -0.000130 0.001144 0.002550 -0.003170 0.004080 0.000927 0.001120 -0.000608 0.002986 -0.002288 -0.002097 0.002158 -0.000753 0.001031 0.001805 -0.004089 -0.001983 0.002914 0.004232 0.003932 -0.003047 -0.002108 -0.000909 0.002001 -0.003788 0.002998 0.002788 -0.001599 -0.001552 -0.002238 0.004229 0.003912 -0.001180 0.004215 0.004820 0.001815 0.004983 -0.003111 -0.001532 -0.002107 -0.002907 0.002815 0.001579 0.000425 -0.002194 0.001524 0.003059 0.000194 
based 0.016545 0.200667 0.137371 -0.167599 0.039376 0.086515 0.297222 0.086533 -0.379692 0.417672 -0.230772 -0.138664 -0.133436 0.090605 -0.131850 0.015315 0.166924 0.025978 0.155376 0.003781 -0.095234 0.026124 0.030090 0.246701 0.338345 0.065466 0.114838 0.329373 -0.012055 -0.153668 0.093978 0.049702 -0.281566 0.179008 -0.154536 -0.067628 0.060602 -0.261528 -0.180786 -0.185956 -0.029659 -0.050942 0.064027 -0.082325 0.103380 0.405326 -0.206893 0.125278 -0.172651 -0.421722 -0.098621 -0.063862 0.083979 -0.098099 -0.098805 -0.059080 0.039684 -0.010153 0.123769 0.339826 0.118662 -0.099763 -0.195143 -0.030242 0.170888 -0.090048 0.071294 -0.040888 0.294134 0.067675 -0.064973 0.169577 0.045075 -0.381740 -0.403239 0.026059 -0.116308 0.227728 0.095012 0.077512 -0.080144 0.199236 0.079626 -0.099231 -0.274686 0.197702 -0.009969 -0.026166 0.075633 0.085097 0.168368 -0.220913 0.070369 0.162277 -0.045043 -0.025994 0.761295 -0.092284 0.094178 0.023072 
paper 0.104890 0.109083 0.160293 -0.440356 -0.026014 0.002390 0.265809 0.303162 -0.201978 0.197306 -0.063476 -0.220012 -0.034193 -0.054483 -0.005417 0.241777 0.109466 0.058314 0.284816 0.296488 -0.063220 0.023753 -0.159906 0.116853 -0.109273 0.133151 0.064535 0.247317 0.292615 -0.113629 0.373330 -0.193130 -0.310420 0.028685 -0.380183 -0.051506 0.073142 -0.229971 -0.085483 -0.009885 0.134588 0.085029 0.065977 -0.165190 0.086619 0.342376 0.060872 0.093719 -0.230168 -0.342315 -0.105782 -0.053553 -0.017030 -0.065444 -0.092764 -0.134201 0.135549 -0.022387 0.040181 0.462356 -0.109050 -0.178809 -0.358949 0.072895 -0.009841 -0.292483 -0.074805 0.014835 0.214033 -0.052676 0.113126 -0.169943 -0.074577 -0.079695 -0.402212 0.082721 -0.195733 0.267344 -0.216846 -0.091294 -0.059113 0.112126 -0.061628 -0.002385 -0.233866 -0.076584 -0.124220 -0.236929 -0.068668 -0.334564 0.182224 -0.233443 0.049065 0.149971 -0.247373 0.068062 0.776698 0.118780 0.132502 0.266688 
system -0.017687 -0.120969 0.160628 -0.052001 -0.248830 -0.022814 0.230236 -0.011032 -0.296387 0.389507 -0.287750 -0.113338 -0.018055 -0.237617 -0.208665 -0.144523 -0.107571 0.039745 -0.008976 0.159570 -0.032395 -0.098591 -0.070459 -0.066443 -0.121381 0.297414 0.015194 0.310196 0.018465 -0.309099 0.091054 -0.066523 0.062199 0.329976 -0.207731 -0.032139 0.090967 -0.048569 -0.039937 -0.023653 0.038929 -0.119265 -0.067567 0.032119 0.124449 0.275810 0.183441 -0.139955 -0.151665 -0.272391 -0.187812 -0.116099 0.278096 0.219783 -0.194648 -0.011054 0.109108 -0.037500 0.091137 0.292516 0.183396 -0.274474 -0.198479 -0.074423 -0.095059 -0.136204 -0.132356 -0.089532 -0.112356 -0.145905 -0.083973 -0.023860 0.107282 -0.222453 -0.350525 0.286996 -0.347538 0.147653 -0.036862 -0.007370 -0.043762 -0.254269 -0.290212 -0.291815 -0.452486 -0.055530 0.067478 -0.306327 -0.063019 0.118211 0.141391 -0.292492 0.029280 0.155926 -0.118197 -0.029142 0.721641 0.140130 0.097563 0.252065 
using -0.042064 -0.025664 0.127601 -0.076754 -0.061114 0.093446 0.267512 0.039752 -0.376034 0.366280 -0.023471 -0.144295 -0.198968 0.026479 -0.125954 0.030124 0.135460 -0.014197 0.209571 -0.050373 -0.064595 0.096628 -0.101876 0.166680 0.182846 0.033240 0.209554 0.303545 0.022629 -0.207780 -0.030256 0.019075 0.093747 0.109864 0.104792 -0.082351 -0.056883 -0.257344 -0.291017 0.027949 0.200674 -0.199139 -0.072179 -0.099793 0.156941 0.474997 -0.117150 0.026457 -0.153061 -0.376878 0.051644 -0.128550 0.203852 -0.242006 -0.135171 -0.041808 0.147383 -0.017955 0.116353 0.229023 0.263528 -0.141390 -0.150605 -0.030956 0.202792 -0.155485 0.042257 0.034196 0.205632 -0.003352 0.074702 0.301902 -0.067239 -0.100100 -0.366077 0.071001 -0.134411 -0.005070 0.179324 -0.082818 -0.272069 0.091957 0.085718 -0.041932 -0.247655 0.124321 0.149722 -0.000853 0.037444 0.111868 0.178495 -0.212963 0.155259 0.122543 0.016251 0.031677 0.701109 -0.234777 0.078452 0.051701 
data 0.095816 -0.023817 -0.134440 -0.079721 -0.290013 -0.146124 -0.033788 0.000097 -0.463941 0.192295 0.111342 0.100029 -0.243212 -0.380146 -0.396551 0.166446 0.186654 -0.180416 -0.146371 0.160753 0.373487 0.271824 0.037728 0.265614 0.330654 0.218551 0.096997 0.366293 0.440795 0.113616 -0.017732 -0.188647 0.268608 0.017779 -0.246843 0.064485 -0.070816 -0.011465 -0.136628 0.143387 0.014165 -0.130012 -0.112432 -0.090912 0.071157 0.170084 0.009434 -0.164877 0.148923 -0.088180 -0.067981 0.014108 0.007763 0.056200 -0.139089 -0.192143 0.032832 -0.145776 0.148410 0.043747 0.124490 -0.352491 -0.426259 -0.194036 0.121031 0.015476 0.005290 0.148209 -0.314703 0.129206 -0.008826 0.077299 0.325294 0.122579 -0.157585 0.230221 -0.271039 -0.033267 -0.013622 -0.072431 0.130118 0.229880 0.119509 -0.014064 -0.091304 0.211659 0.005015 -0.448742 0.097365 0.422235 0.384699 0.085621 0.510166 -0.129598 0.103527 0.023031 0.800875 0.100663 -0.033815 0.099561 
proposed 0.100113 0.146404 0.053442 0.141682 0.010244 -0.100279 0.320885 0.028316 -0.184897 0.495627 -0.114444 0.023504 -0.195234 -0.065742 -0.011151 0.117847 0.113302 0.055047 0.310052 -0.206399 -0.103780 -0.009086 0.201915 -0.000262 0.045260 0.143593 0.162233 0.188825 0.203739 -0.270311 -0.041996 -0.246261 -0.030820 0.127952 0.079628 -0.125168 0.121502 -0.321651 -0.142332 0.002055 0.128392 -0.054153 0.105110 -0.065992 0.230672 0.292215 -0.094922 0.092432 -0.275700 -0.369098 -0.025816 0.011591 -0.016509 0.152673 0.101311 -0.033086 -0.200303 0.122169 0.044114 0.092753 0.142277 -0.036017 -0.269359 -0.143609 0.059687 -0.093220 -0.090614 -0.029223 0.157323 -0.070126 0.270079 0.357699 0.186658 -0.217031 -0.547574 -0.076173 -0.512650 0.121187 0.027525 0.071618 -0.145445 0.054154 0.037765 -0.183072 -0.192705 -0.098134 0.006992 -0.354616 0.291205 0.041074 0.210251 -0.050095 0.078014 0.267779 -0.203736 0.139796 0.570037 0.112415 0.020689 0.095260 
model 0.086891 0.108707 0.058708 0.057078 -0.332016 0.440574 0.267289 -0.007100 -0.210371 0.213385 -0.036696 -0.030802 -0.203709 0.052705 -0.234440 0.033957 0.019951 -0.175191 -0.020956 -0.044876 0.024042 0.221101 0.169480 0.045680 0.242770 0.119083 0.035410 0.237964 0.024167 -0.205344 0.127166 0.072863 -0.334311 -0.106668 0.068602 -0.253142 0.101960 -0.015309 0.017239 -0.113332 -0.043435 0.068831 -0.099640 0.022663 0.037555 0.273599 -0.055824 0.116825 -0.315215 -0.381678 -0.076639 0.195691 0.350378 -0.014271 -0.038617 -0.029601 0.311873 -0.152284 -0.005158 0.212467 -0.064483 -0.104051 -0.226675 -0.191577 -0.254776 -0.264538 -0.067813 0.213287 0.109496 -0.071993 0.091986 0.088721 0.109775 0.128759 -0.415727 0.223613 -0.175482 0.231114 0.329986 0.018748 0.013297 0.090913 0.153796 -0.152384 -0.530189 0.025939 0.236274 -0.315499 -0.027072 -0.158916 -0.098845 -0.336068 0.378607 0.128159 -0.090464 -0.198429 0.614281 0.172605 0.116983 0.253824 
result 0.167968 -0.067742 0.143964 0.086122 0.044448 0.270738 0.423040 -0.114055 0.081691 0.325747 -0.191161 -0.044828 -0.183604 -0.140087 -0.014050 -0.168030 0.164786 0.136913 0.226461 0.055177 0.090106 0.225792 0.035715 0.085978 0.128448 0.039338 0.273904 0.091305 0.445451 -0.074802 -0.022774 -0.200644 0.123074 0.004556 0.266947 -0.070104 0.090679 -0.371907 -0.300954 0.038748 0.080404 -0.049570 -0.206296 0.127590 0.349980 0.135295 0.020943 0.091624 -0.203801 -0.185764 -0.039905 -0.011424 0.277787 0.043798 0.106099 -0.007777 0.056499 0.114395 0.150050 -0.023668 0.122377 0.000192 -0.272292 -0.117398 0.101597 -0.177908 -0.113466 0.130965 -0.060889 -0.281668 0.453963 0.425891 0.121800 -0.169774 -0.186182 0.012903 -0.485772 -0.069727 -0.052731 -0.058659 -0.190925 -0.051620 0.122471 -0.356949 -0.257614 -0.002262 -0.007779 -0.269886 0.202449 0.095607 0.247757 0.091294 0.171393 0.179857 -0.038967 0.054030 0.491151 0.125379 0.027343 0.161494 
